digraph Tree {
0 [label="Color <= 957.0000\ngini = 0.656295221848\nsamples = 13783", shape="box"] ;
1 [label="IntakeType <= 701.5000\ngini = 0.490780142625\nsamples = 7380", shape="box"] ;
0 -> 1 ;
2 [label="IntakeType <= 576.5000\ngini = 0.445350097504\nsamples = 5942", shape="box"] ;
1 -> 2 ;
3 [label="EstimatedAge <= 75.5000\ngini = 0.46917699273\nsamples = 2154", shape="box"] ;
2 -> 3 ;
4 [label="IntakeYear <= 188.5000\ngini = 0.425726996528\nsamples = 192", shape="box"] ;
3 -> 4 ;
5 [label="gini = 0.4942\nsamples = 74\nvalue = [ 33.   0.  41.]", shape="box"] ;
4 -> 5 ;
6 [label="gini = 0.3436\nsamples = 118\nvalue = [ 26.   0.  92.]", shape="box"] ;
4 -> 6 ;
7 [label="OutcomeYear <= 1.5000\ngini = 0.45013617551\nsamples = 1962", shape="box"] ;
3 -> 7 ;
8 [label="gini = 0.3843\nsamples = 1226\nvalue = [ 910.    4.  312.]", shape="box"] ;
7 -> 8 ;
9 [label="gini = 0.5095\nsamples = 736\nvalue = [ 395.   10.  331.]", shape="box"] ;
7 -> 9 ;
10 [label="IntakeYear <= 907.5000\ngini = 0.420222840092\nsamples = 3788", shape="box"] ;
2 -> 10 ;
11 [label="IntakeMonth <= 737.5000\ngini = 0.392202033099\nsamples = 3243", shape="box"] ;
10 -> 11 ;
12 [label="gini = 0.2972\nsamples = 988\nvalue = [ 816.   34.  138.]", shape="box"] ;
11 -> 12 ;
13 [label="gini = 0.4286\nsamples = 2255\nvalue = [ 1628.   142.   485.]", shape="box"] ;
11 -> 13 ;
14 [label="IntakeYear <= 927.5000\ngini = 0.534284992846\nsamples = 545", shape="box"] ;
10 -> 14 ;
15 [label="gini = 0.4540\nsamples = 149\nvalue = [  41.    6.  102.]", shape="box"] ;
14 -> 15 ;
16 [label="gini = 0.4644\nsamples = 396\nvalue = [ 272.   28.   96.]", shape="box"] ;
14 -> 16 ;
17 [label="IntakeType <= 827.5000\ngini = 0.570902834063\nsamples = 1438", shape="box"] ;
1 -> 17 ;
18 [label="EstimatedAge <= 646.5000\ngini = 0.503995884929\nsamples = 489", shape="box"] ;
17 -> 18 ;
19 [label="SpayNeuter <= 593.0000\ngini = 0.482156384143\nsamples = 436", shape="box"] ;
18 -> 19 ;
20 [label="gini = 0.4594\nsamples = 408\nvalue = [  86.   37.  285.]", shape="box"] ;
19 -> 20 ;
21 [label="gini = 0.5587\nsamples = 28\nvalue = [ 16.   3.   9.]", shape="box"] ;
19 -> 21 ;
22 [label="EstimatedAge <= 780.0000\ngini = 0.545389818441\nsamples = 53", shape="box"] ;
18 -> 22 ;
23 [label="gini = 0.5044\nsamples = 30\nvalue = [ 19.   2.   9.]", shape="box"] ;
22 -> 23 ;
24 [label="gini = 0.5255\nsamples = 23\nvalue = [  9.   1.  13.]", shape="box"] ;
22 -> 24 ;
25 [label="IntakeYear <= 722.5000\ngini = 0.571436185392\nsamples = 949", shape="box"] ;
17 -> 25 ;
26 [label="IntakeYear <= 490.5000\ngini = 0.538865133848\nsamples = 614", shape="box"] ;
25 -> 26 ;
27 [label="gini = 0.5537\nsamples = 567\nvalue = [ 312.   45.  210.]", shape="box"] ;
26 -> 27 ;
28 [label="gini = 0.1557\nsamples = 47\nvalue = [ 43.   0.   4.]", shape="box"] ;
26 -> 28 ;
29 [label="EstimatedAge <= 236.0000\ngini = 0.560997995099\nsamples = 335", shape="box"] ;
25 -> 29 ;
30 [label="gini = 0.3848\nsamples = 71\nvalue = [ 13.   4.  54.]", shape="box"] ;
29 -> 30 ;
31 [label="gini = 0.5869\nsamples = 264\nvalue = [  98.   31.  135.]", shape="box"] ;
29 -> 31 ;
32 [label="IntakeMonth <= 782.5000\ngini = 0.589040418617\nsamples = 6403", shape="box"] ;
0 -> 32 ;
33 [label="IntakeMonth <= 480.0000\ngini = 0.632468107393\nsamples = 3173", shape="box"] ;
32 -> 33 ;
34 [label="IntakeMonth <= 417.5000\ngini = 0.263280806036\nsamples = 491", shape="box"] ;
33 -> 34 ;
35 [label="gini = 0.0000\nsamples = 9\nvalue = [ 0.  0.  9.]", shape="box"] ;
34 -> 35 ;
36 [label="IntakeType <= 576.5000\ngini = 0.240353988396\nsamples = 482", shape="box"] ;
34 -> 36 ;
37 [label="gini = 0.1067\nsamples = 283\nvalue = [   0.  267.   16.]", shape="box"] ;
36 -> 37 ;
38 [label="gini = 0.3932\nsamples = 199\nvalue = [   8.  149.   42.]", shape="box"] ;
36 -> 38 ;
39 [label="SpayNeuter <= 663.5000\ngini = 0.656005652064\nsamples = 2682", shape="box"] ;
33 -> 39 ;
40 [label="SpayNeuter <= 261.5000\ngini = 0.625534185585\nsamples = 1868", shape="box"] ;
39 -> 40 ;
41 [label="gini = 0.5730\nsamples = 181\nvalue = [ 103.   26.   52.]", shape="box"] ;
40 -> 41 ;
42 [label="gini = 0.6011\nsamples = 1687\nvalue = [ 272.  881.  534.]", shape="box"] ;
40 -> 42 ;
43 [label="SpayNeuter <= 809.5000\ngini = 0.621437497359\nsamples = 814", shape="box"] ;
39 -> 43 ;
44 [label="gini = 0.4128\nsamples = 539\nvalue = [ 400.   48.   91.]", shape="box"] ;
43 -> 44 ;
45 [label="gini = 0.5111\nsamples = 275\nvalue = [  12.  165.   98.]", shape="box"] ;
43 -> 45 ;
46 [label="SpayNeuter <= 261.5000\ngini = 0.519708038992\nsamples = 3230", shape="box"] ;
32 -> 46 ;
47 [label="Sex <= 36.0000\ngini = 0.643306108623\nsamples = 489", shape="box"] ;
46 -> 47 ;
48 [label="IntakeType <= 923.0000\ngini = 0.659325259516\nsamples = 340", shape="box"] ;
47 -> 48 ;
49 [label="gini = 0.6545\nsamples = 320\nvalue = [  78.  124.  118.]", shape="box"] ;
48 -> 49 ;
50 [label="gini = 0.5550\nsamples = 20\nvalue = [ 12.   5.   3.]", shape="box"] ;
48 -> 50 ;
51 [label="Sex <= 214.5000\ngini = 0.572586820413\nsamples = 149", shape="box"] ;
47 -> 51 ;
52 [label="gini = 0.4244\nsamples = 30\nvalue = [  3.  22.   5.]", shape="box"] ;
51 -> 52 ;
53 [label="gini = 0.5795\nsamples = 119\nvalue = [ 11.  55.  53.]", shape="box"] ;
51 -> 53 ;
54 [label="Breed <= 1.5000\ngini = 0.485549403767\nsamples = 2741", shape="box"] ;
46 -> 54 ;
55 [label="EstimatedAge <= 416.5000\ngini = 0.410246863631\nsamples = 1594", shape="box"] ;
54 -> 55 ;
56 [label="gini = 0.4660\nsamples = 450\nvalue = [   9.  294.  147.]", shape="box"] ;
55 -> 56 ;
57 [label="gini = 0.3826\nsamples = 1144\nvalue = [  26.  861.  257.]", shape="box"] ;
55 -> 57 ;
58 [label="IntakeType <= 576.5000\ngini = 0.548986819032\nsamples = 1147", shape="box"] ;
54 -> 58 ;
59 [label="gini = 0.2067\nsamples = 155\nvalue = [   1.   17.  137.]", shape="box"] ;
58 -> 59 ;
60 [label="gini = 0.5326\nsamples = 992\nvalue = [  67.  580.  345.]", shape="box"] ;
58 -> 60 ;
}