digraph Tree {
0 [label="Color <= 957.0000\ngini = 0.656295221848\nsamples = 13783", shape="box"] ;
1 [label="IntakeType <= 701.5000\ngini = 0.491136137372\nsamples = 7404", shape="box"] ;
0 -> 1 ;
2 [label="OutcomeYear <= 1.5000\ngini = 0.444814133112\nsamples = 5939", shape="box"] ;
1 -> 2 ;
3 [label="EstimatedAge <= 75.5000\ngini = 0.394460246233\nsamples = 3597", shape="box"] ;
2 -> 3 ;
4 [label="IntakeType <= 576.5000\ngini = 0.527927880892\nsamples = 339", shape="box"] ;
3 -> 4 ;
5 [label="gini = 0.3617\nsamples = 135\nvalue = [  32.    0.  103.]", shape="box"] ;
4 -> 5 ;
6 [label="gini = 0.4365\nsamples = 204\nvalue = [ 145.   11.   48.]", shape="box"] ;
4 -> 6 ;
7 [label="Sex <= 722.0000\ngini = 0.369527566088\nsamples = 3258", shape="box"] ;
3 -> 7 ;
8 [label="gini = 0.3632\nsamples = 3207\nvalue = [ 2475.    87.   645.]", shape="box"] ;
7 -> 8 ;
9 [label="gini = 0.5675\nsamples = 51\nvalue = [ 22.   4.  25.]", shape="box"] ;
7 -> 9 ;
10 [label="IntakeYear <= 912.5000\ngini = 0.505658378068\nsamples = 2342", shape="box"] ;
2 -> 10 ;
11 [label="IntakeMonth <= 480.0000\ngini = 0.487660183232\nsamples = 2009", shape="box"] ;
10 -> 11 ;
12 [label="gini = 0.4383\nsamples = 54\nvalue = [  6.   9.  39.]", shape="box"] ;
11 -> 12 ;
13 [label="gini = 0.4755\nsamples = 1955\nvalue = [ 1294.    94.   567.]", shape="box"] ;
11 -> 13 ;
14 [label="IntakeYear <= 927.5000\ngini = 0.536103671239\nsamples = 333", shape="box"] ;
10 -> 14 ;
15 [label="gini = 0.2248\nsamples = 124\nvalue = [  16.    0.  108.]", shape="box"] ;
14 -> 15 ;
16 [label="gini = 0.5119\nsamples = 209\nvalue = [ 130.   14.   65.]", shape="box"] ;
14 -> 16 ;
17 [label="IntakeType <= 827.5000\ngini = 0.573736677189\nsamples = 1465", shape="box"] ;
1 -> 17 ;
18 [label="EstimatedAge <= 646.5000\ngini = 0.506910129233\nsamples = 493", shape="box"] ;
17 -> 18 ;
19 [label="SpayNeuter <= 593.0000\ngini = 0.488460743802\nsamples = 440", shape="box"] ;
18 -> 19 ;
20 [label="gini = 0.4667\nsamples = 412\nvalue = [  93.   35.  284.]", shape="box"] ;
19 -> 20 ;
21 [label="gini = 0.5893\nsamples = 28\nvalue = [ 15.   4.   9.]", shape="box"] ;
19 -> 21 ;
22 [label="OutcomeYear <= 1.5000\ngini = 0.548949804201\nsamples = 53", shape="box"] ;
18 -> 22 ;
23 [label="gini = 0.4953\nsamples = 31\nvalue = [ 20.   2.   9.]", shape="box"] ;
22 -> 23 ;
24 [label="gini = 0.4917\nsamples = 22\nvalue = [  7.   1.  14.]", shape="box"] ;
22 -> 24 ;
25 [label="IntakeYear <= 722.5000\ngini = 0.576072414435\nsamples = 972", shape="box"] ;
17 -> 25 ;
26 [label="Sex <= 258.5000\ngini = 0.543627824067\nsamples = 632", shape="box"] ;
25 -> 26 ;
27 [label="gini = 0.5105\nsamples = 532\nvalue = [ 330.   33.  169.]", shape="box"] ;
26 -> 27 ;
28 [label="gini = 0.6016\nsamples = 100\nvalue = [ 32.  16.  52.]", shape="box"] ;
26 -> 28 ;
29 [label="Breed <= 1.5000\ngini = 0.569325259516\nsamples = 340", shape="box"] ;
25 -> 29 ;
30 [label="gini = 0.5894\nsamples = 141\nvalue = [ 63.  15.  63.]", shape="box"] ;
29 -> 30 ;
31 [label="gini = 0.5239\nsamples = 199\nvalue = [  49.   24.  126.]", shape="box"] ;
29 -> 31 ;
32 [label="IntakeMonth <= 782.5000\ngini = 0.587807898924\nsamples = 6379", shape="box"] ;
0 -> 32 ;
33 [label="IntakeMonth <= 480.0000\ngini = 0.632038320196\nsamples = 3159", shape="box"] ;
32 -> 33 ;
34 [label="IntakeMonth <= 417.5000\ngini = 0.255753696083\nsamples = 486", shape="box"] ;
33 -> 34 ;
35 [label="gini = 0.0000\nsamples = 10\nvalue = [  0.   0.  10.]", shape="box"] ;
34 -> 35 ;
36 [label="IntakeType <= 576.5000\ngini = 0.229538874373\nsamples = 476", shape="box"] ;
34 -> 36 ;
37 [label="gini = 0.0913\nsamples = 271\nvalue = [   0.  258.   13.]", shape="box"] ;
36 -> 37 ;
38 [label="gini = 0.3761\nsamples = 205\nvalue = [   6.  156.   43.]", shape="box"] ;
36 -> 38 ;
39 [label="SpayNeuter <= 663.5000\ngini = 0.655845285516\nsamples = 2673", shape="box"] ;
33 -> 39 ;
40 [label="SpayNeuter <= 261.5000\ngini = 0.623636836629\nsamples = 1860", shape="box"] ;
39 -> 40 ;
41 [label="gini = 0.5836\nsamples = 195\nvalue = [ 107.   28.   60.]", shape="box"] ;
40 -> 41 ;
42 [label="gini = 0.5965\nsamples = 1665\nvalue = [ 257.  879.  529.]", shape="box"] ;
40 -> 42 ;
43 [label="SpayNeuter <= 809.5000\ngini = 0.617780864156\nsamples = 813", shape="box"] ;
39 -> 43 ;
44 [label="gini = 0.4067\nsamples = 546\nvalue = [ 408.   48.   90.]", shape="box"] ;
43 -> 44 ;
45 [label="gini = 0.4996\nsamples = 267\nvalue = [   9.  163.   95.]", shape="box"] ;
43 -> 45 ;
46 [label="Breed <= 1.5000\ngini = 0.517759924386\nsamples = 3220", shape="box"] ;
32 -> 46 ;
47 [label="SpayNeuter <= 261.5000\ngini = 0.471659127801\nsamples = 1983", shape="box"] ;
46 -> 47 ;
48 [label="Sex <= 723.5000\ngini = 0.634862306614\nsamples = 374", shape="box"] ;
47 -> 48 ;
49 [label="gini = 0.6349\nsamples = 356\nvalue = [  71.  160.  125.]", shape="box"] ;
48 -> 49 ;
50 [label="gini = 0.3642\nsamples = 18\nvalue = [  1.   3.  14.]", shape="box"] ;
48 -> 50 ;
51 [label="EstimatedAge <= 416.5000\ngini = 0.409775497599\nsamples = 1609", shape="box"] ;
47 -> 51 ;
52 [label="gini = 0.4590\nsamples = 458\nvalue = [   8.  303.  147.]", shape="box"] ;
51 -> 52 ;
53 [label="gini = 0.3853\nsamples = 1151\nvalue = [  28.  864.  259.]", shape="box"] ;
51 -> 53 ;
54 [label="IntakeType <= 576.5000\ngini = 0.563401820322\nsamples = 1237", shape="box"] ;
46 -> 54 ;
55 [label="IntakeYear <= 489.5000\ngini = 0.186203406983\nsamples = 154", shape="box"] ;
54 -> 55 ;
56 [label="gini = 0.1078\nsamples = 105\nvalue = [  0.   6.  99.]", shape="box"] ;
55 -> 56 ;
57 [label="gini = 0.3249\nsamples = 49\nvalue = [  0.  10.  39.]", shape="box"] ;
55 -> 57 ;
58 [label="Sex <= 11.5000\ngini = 0.551622532055\nsamples = 1083", shape="box"] ;
54 -> 58 ;
59 [label="gini = 0.5884\nsamples = 672\nvalue = [  79.  340.  253.]", shape="box"] ;
58 -> 59 ;
60 [label="gini = 0.4674\nsamples = 411\nvalue = [  16.  274.  121.]", shape="box"] ;
58 -> 60 ;
}