digraph Tree {
0 [label="Color <= 957.0000\ngini = 0.65629973526\nsamples = 13786", shape="box"] ;
1 [label="IntakeType <= 701.5000\ngini = 0.492567696264\nsamples = 7412", shape="box"] ;
0 -> 1 ;
2 [label="OutcomeYear <= 1.5000\ngini = 0.447818404855\nsamples = 5941", shape="box"] ;
1 -> 2 ;
3 [label="EstimatedAge <= 75.5000\ngini = 0.396078549383\nsamples = 3600", shape="box"] ;
2 -> 3 ;
4 [label="IntakeType <= 576.5000\ngini = 0.534977766885\nsamples = 338", shape="box"] ;
3 -> 4 ;
5 [label="gini = 0.3639\nsamples = 138\nvalue = [  33.    0.  105.]", shape="box"] ;
4 -> 5 ;
6 [label="gini = 0.4597\nsamples = 200\nvalue = [ 138.   13.   49.]", shape="box"] ;
4 -> 6 ;
7 [label="Sex <= 722.0000\ngini = 0.369254906\nsamples = 3262", shape="box"] ;
3 -> 7 ;
8 [label="gini = 0.3625\nsamples = 3208\nvalue = [ 2480.    94.   634.]", shape="box"] ;
7 -> 8 ;
9 [label="gini = 0.5631\nsamples = 54\nvalue = [ 23.   4.  27.]", shape="box"] ;
7 -> 9 ;
10 [label="IntakeYear <= 912.5000\ngini = 0.509856337659\nsamples = 2341", shape="box"] ;
2 -> 10 ;
11 [label="IntakeType <= 576.5000\ngini = 0.491257504202\nsamples = 2015", shape="box"] ;
10 -> 11 ;
12 [label="gini = 0.5045\nsamples = 729\nvalue = [ 405.    9.  315.]", shape="box"] ;
11 -> 12 ;
13 [label="gini = 0.4608\nsamples = 1286\nvalue = [ 891.   98.  297.]", shape="box"] ;
11 -> 13 ;
14 [label="IntakeYear <= 927.5000\ngini = 0.543546990854\nsamples = 326", shape="box"] ;
10 -> 14 ;
15 [label="gini = 0.2400\nsamples = 116\nvalue = [  15.    1.  100.]", shape="box"] ;
14 -> 15 ;
16 [label="gini = 0.5344\nsamples = 210\nvalue = [ 124.   16.   70.]", shape="box"] ;
14 -> 16 ;
17 [label="IntakeType <= 827.5000\ngini = 0.569346823542\nsamples = 1471", shape="box"] ;
1 -> 17 ;
18 [label="EstimatedAge <= 646.5000\ngini = 0.509128930395\nsamples = 488", shape="box"] ;
17 -> 18 ;
19 [label="SpayNeuter <= 593.0000\ngini = 0.491283925663\nsamples = 437", shape="box"] ;
18 -> 19 ;
20 [label="gini = 0.4674\nsamples = 409\nvalue = [  91.   36.  282.]", shape="box"] ;
19 -> 20 ;
21 [label="gini = 0.5714\nsamples = 28\nvalue = [ 16.   4.   8.]", shape="box"] ;
19 -> 21 ;
22 [label="OutcomeYear <= 1.5000\ngini = 0.506728181469\nsamples = 51", shape="box"] ;
18 -> 22 ;
23 [label="gini = 0.4473\nsamples = 32\nvalue = [ 22.   1.   9.]", shape="box"] ;
22 -> 23 ;
24 [label="gini = 0.4654\nsamples = 19\nvalue = [  7.   0.  12.]", shape="box"] ;
22 -> 24 ;
25 [label="IntakeYear <= 722.5000\ngini = 0.570593269715\nsamples = 983", shape="box"] ;
17 -> 25 ;
26 [label="Sex <= 258.5000\ngini = 0.54015500031\nsamples = 635", shape="box"] ;
25 -> 26 ;
27 [label="gini = 0.5094\nsamples = 535\nvalue = [ 329.   29.  177.]", shape="box"] ;
26 -> 27 ;
28 [label="gini = 0.5982\nsamples = 100\nvalue = [ 33.  15.  52.]", shape="box"] ;
26 -> 28 ;
29 [label="EstimatedAge <= 236.0000\ngini = 0.56488637865\nsamples = 348", shape="box"] ;
25 -> 29 ;
30 [label="gini = 0.3808\nsamples = 75\nvalue = [ 15.   3.  57.]", shape="box"] ;
29 -> 30 ;
31 [label="gini = 0.5931\nsamples = 273\nvalue = [ 102.   34.  137.]", shape="box"] ;
29 -> 31 ;
32 [label="IntakeMonth <= 782.5000\ngini = 0.588442920324\nsamples = 6374", shape="box"] ;
0 -> 32 ;
33 [label="IntakeMonth <= 480.0000\ngini = 0.632339907023\nsamples = 3188", shape="box"] ;
32 -> 33 ;
34 [label="IntakeMonth <= 417.5000\ngini = 0.264638202096\nsamples = 488", shape="box"] ;
33 -> 34 ;
35 [label="gini = 0.0000\nsamples = 9\nvalue = [ 0.  0.  9.]", shape="box"] ;
34 -> 35 ;
36 [label="IntakeType <= 576.5000\ngini = 0.241648179706\nsamples = 479", shape="box"] ;
34 -> 36 ;
37 [label="gini = 0.1103\nsamples = 273\nvalue = [   0.  257.   16.]", shape="box"] ;
36 -> 37 ;
38 [label="gini = 0.3834\nsamples = 206\nvalue = [   8.  156.   42.]", shape="box"] ;
36 -> 38 ;
39 [label="SpayNeuter <= 663.5000\ngini = 0.655683676269\nsamples = 2700", shape="box"] ;
33 -> 39 ;
40 [label="SpayNeuter <= 261.5000\ngini = 0.624904934359\nsamples = 1880", shape="box"] ;
39 -> 40 ;
41 [label="gini = 0.5841\nsamples = 191\nvalue = [ 105.   28.   58.]", shape="box"] ;
40 -> 41 ;
42 [label="gini = 0.5995\nsamples = 1689\nvalue = [ 269.  886.  534.]", shape="box"] ;
40 -> 42 ;
43 [label="SpayNeuter <= 809.5000\ngini = 0.621942296252\nsamples = 820", shape="box"] ;
39 -> 43 ;
44 [label="gini = 0.4145\nsamples = 544\nvalue = [ 403.   49.   92.]", shape="box"] ;
43 -> 44 ;
45 [label="gini = 0.5044\nsamples = 276\nvalue = [  11.  168.   97.]", shape="box"] ;
43 -> 45 ;
46 [label="SpayNeuter <= 261.5000\ngini = 0.517318391945\nsamples = 3186", shape="box"] ;
32 -> 46 ;
47 [label="Size <= 515.5000\ngini = 0.648293031323\nsamples = 495", shape="box"] ;
46 -> 47 ;
48 [label="EstimatedAge <= 657.0000\ngini = 0.591804081633\nsamples = 175", shape="box"] ;
47 -> 48 ;
49 [label="gini = 0.5830\nsamples = 154\nvalue = [ 20.  83.  51.]", shape="box"] ;
48 -> 49 ;
50 [label="gini = 0.5261\nsamples = 21\nvalue = [  2.   6.  13.]", shape="box"] ;
48 -> 50 ;
51 [label="IntakeYear <= 723.0000\ngini = 0.66169921875\nsamples = 320", shape="box"] ;
47 -> 51 ;
52 [label="gini = 0.6611\nsamples = 237\nvalue = [ 75.  69.  93.]", shape="box"] ;
51 -> 52 ;
53 [label="gini = 0.6097\nsamples = 83\nvalue = [ 14.  42.  27.]", shape="box"] ;
51 -> 53 ;
54 [label="Breed <= 1.5000\ngini = 0.477962726133\nsamples = 2691", shape="box"] ;
46 -> 54 ;
55 [label="EstimatedAge <= 416.5000\ngini = 0.398273243838\nsamples = 1585", shape="box"] ;
54 -> 55 ;
56 [label="gini = 0.4543\nsamples = 453\nvalue = [   7.  302.  144.]", shape="box"] ;
55 -> 56 ;
57 [label="gini = 0.3705\nsamples = 1132\nvalue = [  21.  863.  248.]", shape="box"] ;
55 -> 57 ;
58 [label="IntakeType <= 576.5000\ngini = 0.545911009813\nsamples = 1106", shape="box"] ;
54 -> 58 ;
59 [label="gini = 0.1802\nsamples = 151\nvalue = [   1.   14.  136.]", shape="box"] ;
58 -> 59 ;
60 [label="gini = 0.5282\nsamples = 955\nvalue = [  60.  562.  333.]", shape="box"] ;
58 -> 60 ;
}